<?xml version="1.0"?>
<opencv_storage>
<!-- Created using Computer Vision System Toolbox(tm) for MATLAB(R) -->
<!-- Version 8.6.0.267246 (R2015b) -->
<!-- Compatible with OpenCV 2.4 -->
<cascade>
  <stageType>BOOST</stageType>
  <featureType>LBP</featureType>
  <height>24</height>
  <width>24</width>
  <stageParams>
    <boostType>GAB</boostType>
    <minHitRate>9.9500000476837158e-01</minHitRate>
    <maxFalseAlarm>5.0000000000000000e-01</maxFalseAlarm>
    <weightTrimRate>9.4999999999999996e-01</weightTrimRate>
    <maxDepth>1</maxDepth>
    <maxWeakCount>100</maxWeakCount></stageParams>
  <featureParams>
    <maxCatCount>256</maxCatCount>
    <featSize>1</featSize></featureParams>
  <stageNum>40</stageNum>
  <stages>
    <!-- stage 0 -->
    <_>
      <maxWeakCount>3</maxWeakCount>
      <stageThreshold>-9.5531362295150757e-01</stageThreshold>
      <weakClassifiers>
        <_>
          <internalNodes>
            0 -1 49 -788471422 -654180350 402669568 352325632
            -1073692536 84049920 536903818 -352124917</internalNodes>
          <leafValues>
            -8.7279152870178223e-01 7.3426574468612671e-01</leafValues></_>
        <_>
          <internalNodes>
            0 -1 76 -788410240 -754909183 1 -788299776 -1879014758 0
            41096 596344971</internalNodes>
          <leafValues>
            -8.3627271652221680e-01 7.9227322340011597e-01</leafValues></_>
        <_>
          <internalNodes>
            0 -1 74 -805257000 1363247105 16 1359024129 -2147450728
            1073741824 33416 1073971339</internalNodes>
          <leafValues>
            -8.7479531764984131e-01 7.5833016633987427e-01</leafValues></_></weakClassifiers></_>
    <!-- stage 1 -->
    <_>
      <maxWeakCount>2</maxWeakCount>
      <stageThreshold>-2.2123910486698151e-01</stageThreshold>
      <weakClassifiers>
        <_>
          <internalNodes>
            0 -1 13 -741223719 -784035840 16810008 1363247107 570441961
            1342177280 1091633323 1531400203</internalNodes>
          <leafValues>
            -8.3916085958480835e-01 6.9999998807907104e-01</leafValues></_>
        <_>
          <internalNodes>
            0 -1 9 -800681269 -229408768 65547 -1023344638 269025801
            2013266432 101003 1929597451</internalNodes>
          <leafValues>
            -8.9251846075057983e-01 6.1792171001434326e-01</leafValues></_></weakClassifiers></_>
    <!-- stage 2 -->
    <_>
      <maxWeakCount>2</maxWeakCount>
      <stageThreshold>-2.1052850782871246e-01</stageThreshold>
      <weakClassifiers>
        <_>
          <internalNodes>
            0 -1 55 -233770500 -788365047 128 2030043298 -805252453
            -1610088312 -2147448402 -36208369</internalNodes>
          <leafValues>
            -8.1625443696975708e-01 6.2237763404846191e-01</leafValues></_>
        <_>
          <internalNodes>
            0 -1 92 -775438197 16875523 32897 1091129347 -704544743 2
            25334154 453747339</internalNodes>
          <leafValues>
            -8.3290612697601318e-01 6.5387380123138428e-01</leafValues></_></weakClassifiers></_>
    <!-- stage 3 -->
    <_>
      <maxWeakCount>3</maxWeakCount>
      <stageThreshold>-8.4566098451614380e-01</stageThreshold>
      <weakClassifiers>
        <_>
          <internalNodes>
            0 -1 83 -774597678 1291845632 -1073709048 -754778032
            -2013208437 8388617 -2147434309 -180232177</internalNodes>
          <leafValues>
            -7.8472220897674561e-01 6.0869562625885010e-01</leafValues></_>
        <_>
          <internalNodes>
            0 -1 52 1359512017 -650051455 16941313 356581635 -2147450646
            -1988099968 -1878422837 453574665</internalNodes>
          <leafValues>
            -7.3542916774749756e-01 7.2387146949768066e-01</leafValues></_>
        <_>
          <internalNodes>
            0 -1 36 -804138602 -258145976 4114 1128796224 -2147450750
            -2013265920 65536 -620031350</internalNodes>
          <leafValues>
            -7.1892744302749634e-01 7.4652808904647827e-01</leafValues></_></weakClassifiers></_>
    <!-- stage 4 -->
    <_>
      <maxWeakCount>3</maxWeakCount>
      <stageThreshold>-1.0706051588058472e+00</stageThreshold>
      <weakClassifiers>
        <_>
          <internalNodes>
            0 -1 31 1372176760 419496005 419430612 1561673809
            -2147434303 -729251712 -1744795478 -41281301</internalNodes>
          <leafValues>
            -7.8417265415191650e-01 5.1351350545883179e-01</leafValues></_>
        <_>
          <internalNodes>
            0 -1 89 -1073547193 -783871936 331780 20971520 -1576886134
            -2147450750 -1878424696 811303115</internalNodes>
          <leafValues>
            -7.9040539264678955e-01 6.0380101203918457e-01</leafValues></_>
        <_>
          <internalNodes>
            0 -1 17 -1287548777 1527189522 16842884 -746012672
            1346929288 -1610612736 -666854261 2137921899</internalNodes>
          <leafValues>
            -7.9371321201324463e-01 6.8702125549316406e-01</leafValues></_></weakClassifiers></_>
    <!-- stage 5 -->
    <_>
      <maxWeakCount>3</maxWeakCount>
      <stageThreshold>-8.0232489109039307e-01</stageThreshold>
      <weakClassifiers>
        <_>
          <internalNodes>
            0 -1 2 -682114917 -704065270 -2130493429 958406671
            1136935433 -1039433728 -2142329973 -901321973</internalNodes>
          <leafValues>
            -7.6791810989379883e-01 6.2406015396118164e-01</leafValues></_>
        <_>
          <internalNodes>
            0 -1 3 1359200539 -788479992 16908546 1363263496 1074429963
            -2147483648 245770 -759172982</internalNodes>
          <leafValues>
            -6.9367164373397827e-01 7.8356373310089111e-01</leafValues></_>
        <_>
          <internalNodes>
            0 -1 50 1900147165 -1793064825 285249941 29397080 -780033589
            -2138570558 -1341545842 1933836491</internalNodes>
          <leafValues>
            -7.3271340131759644e-01 7.1900558471679688e-01</leafValues></_></weakClassifiers></_>
    <!-- stage 6 -->
    <_>
      <maxWeakCount>3</maxWeakCount>
      <stageThreshold>-1.0557260513305664e+00</stageThreshold>
      <weakClassifiers>
        <_>
          <internalNodes>
            0 -1 46 1497600204 -753708783 1090650321 -1861550015
            -1610579831 570753288 16538 1000013963</internalNodes>
          <leafValues>
            -8.3150184154510498e-01 5.5555558204650879e-01</leafValues></_>
        <_>
          <internalNodes>
            0 -1 21 -1044195127 -788332544 1090519043 1494319233
            269025288 1671430144 134234266 2139863179</internalNodes>
          <leafValues>
            -7.8220796585083008e-01 7.0393973588943481e-01</leafValues></_>
        <_>
          <internalNodes>
            0 -1 54 -1862217460 822198808 -2130640879 823902209
            -2113896248 -2130083711 176341706 1036222594</internalNodes>
          <leafValues>
            -9.2477178573608398e-01 5.5798375606536865e-01</leafValues></_></weakClassifiers></_>
    <!-- stage 7 -->
    <_>
      <maxWeakCount>3</maxWeakCount>
      <stageThreshold>-1.0119569301605225e+00</stageThreshold>
      <weakClassifiers>
        <_>
          <internalNodes>
            0 -1 56 1541455703 -134529537 -16385 -16385 -16449
            2100312061 -1140883457 -1093820485</internalNodes>
          <leafValues>
            -6.8518519401550293e-01 7.8431373834609985e-01</leafValues></_>
        <_>
          <internalNodes>
            0 -1 81 -641469983 1343330887 8257 1908771208 -494747213
            -786354173 -1040186705 592167627</internalNodes>
          <leafValues>
            -8.7163567543029785e-01 6.0517174005508423e-01</leafValues></_>
        <_>
          <internalNodes>
            0 -1 78 1229452780 1157922852 -2063579122 -989753329
            -1073195896 -2138832378 -826251211 -576212218</internalNodes>
          <leafValues>
            -8.9593553543090820e-01 5.4486393928527832e-01</leafValues></_></weakClassifiers></_>
    <!-- stage 8 -->
    <_>
      <maxWeakCount>3</maxWeakCount>
      <stageThreshold>-9.1300886869430542e-01</stageThreshold>
      <weakClassifiers>
        <_>
          <internalNodes>
            0 -1 66 1614827847 -217759488 -251117131 -1288633599
            1090520067 -115867640 -939406193 -1150612342</internalNodes>
          <leafValues>
            -7.8397214412689209e-01 5.9712231159210205e-01</leafValues></_>
        <_>
          <internalNodes>
            0 -1 11 -1044129829 -263015675 142622984 -591888190
            1627525281 -1061126144 -1153297749 -1287051177</internalNodes>
          <leafValues>
            -7.6310479640960693e-01 6.8330329656600952e-01</leafValues></_>
        <_>
          <internalNodes>
            0 -1 56 323297437 366150769 -1862205155 923349015
            -1734311750 -1070595944 -1971200755 -1417114966</internalNodes>
          <leafValues>
            -7.4702632427215576e-01 7.3995047807693481e-01</leafValues></_></weakClassifiers></_>
    <!-- stage 9 -->
    <_>
      <maxWeakCount>3</maxWeakCount>
      <stageThreshold>-1.0638533830642700e+00</stageThreshold>
      <weakClassifiers>
        <_>
          <internalNodes>
            0 -1 19 -553465157 -711983101 -2128576169 428949505
            -939489208 -1725955840 -1072004930 -1693810413</internalNodes>
          <leafValues>
            -8.1749051809310913e-01 4.4785276055335999e-01</leafValues></_>
        <_>
          <internalNodes>
            0 -1 52 1410467159 1896943669 1358992221 -1088027631 8422042
            -670889856 -1988060965 -1584649599</internalNodes>
          <leafValues>
            -7.6559787988662720e-01 6.3921654224395752e-01</leafValues></_>
        <_>
          <internalNodes>
            0 -1 58 209724525 -788492268 -805238423 -1723334528
            537560503 -1065353216 -324304511 -79635836</internalNodes>
          <leafValues>
            -7.4610823392868042e-01 6.7282199859619141e-01</leafValues></_></weakClassifiers></_>
    <!-- stage 10 -->
    <_>
      <maxWeakCount>4</maxWeakCount>
      <stageThreshold>-4.2621678113937378e-01</stageThreshold>
      <weakClassifiers>
        <_>
          <internalNodes>
            0 -1 12 -126752753 -750665585 -1879027710 -251133817
            -1073684470 -1744273406 -519396805 -216295261</internalNodes>
          <leafValues>
            -7.2575253248214722e-01 5.9055119752883911e-01</leafValues></_>
        <_>
          <internalNodes>
            0 -1 39 1237600937 2030179155 16844877 318997251 -930619331
            1417740288 1233158331 1562269899</internalNodes>
          <leafValues>
            -8.0067223310470581e-01 5.7000714540481567e-01</leafValues></_>
        <_>
          <internalNodes>
            0 -1 22 -438475185 -1874390523 -2146283312 -2137726682
            -1073735616 -2147352576 -2124333056 -770194517</internalNodes>
          <leafValues>
            -7.7751672267913818e-01 6.2831532955169678e-01</leafValues></_>
        <_>
          <internalNodes>
            0 -1 38 1099529762 1392836872 268468739 1476518731
            1377930951 -1979678208 -1874474773 -816072174</internalNodes>
          <leafValues>
            -8.4441107511520386e-01 6.0221898555755615e-01</leafValues></_></weakClassifiers></_>
    <!-- stage 11 -->
    <_>
      <maxWeakCount>2</maxWeakCount>
      <stageThreshold>-2.7513095736503601e-01</stageThreshold>
      <weakClassifiers>
        <_>
          <internalNodes>
            0 -1 61 318839615 -672137040 17105343 1561659409 -2138930789
            -2104491904 201361834 -1693973976</internalNodes>
          <leafValues>
            -7.2666668891906738e-01 6.0317462682723999e-01</leafValues></_>
        <_>
          <internalNodes>
            0 -1 57 1354145580 821100693 -1072560069 474169929
            -1610049605 1917190305 -788491807 156147809</internalNodes>
          <leafValues>
            -8.7830555438995361e-01 4.9724432826042175e-01</leafValues></_></weakClassifiers></_>
    <!-- stage 12 -->
    <_>
      <maxWeakCount>2</maxWeakCount>
      <stageThreshold>-2.9176175594329834e-01</stageThreshold>
      <weakClassifiers>
        <_>
          <internalNodes>
            0 -1 10 -1181031521 -650095614 1135887 -91930271 818938091
            -1782510710 1669462944 -20493029</internalNodes>
          <leafValues>
            -7.6760566234588623e-01 5.3521126508712769e-01</leafValues></_>
        <_>
          <internalNodes>
            0 -1 26 706757110 -910128041 353374409 -586643312
            -1534574141 -1079998394 -1045737186 -87555765</internalNodes>
          <leafValues>
            -8.2697302103042603e-01 5.9699684381484985e-01</leafValues></_></weakClassifiers></_>
    <!-- stage 13 -->
    <_>
      <maxWeakCount>3</maxWeakCount>
      <stageThreshold>-8.8632011413574219e-01</stageThreshold>
      <weakClassifiers>
        <_>
          <internalNodes>
            0 -1 60 1073746271 -1206845439 117506141 -988741632
            -461340261 -1717038936 -1979676129 -1744732120</internalNodes>
          <leafValues>
            -6.9329071044921875e-01 6.6371679306030273e-01</leafValues></_>
        <_>
          <internalNodes>
            0 -1 24 -111191801 -1320054691 -1862135785 -887562240
            -1979490204 1745379336 -1451114456 -16695031</internalNodes>
          <leafValues>
            -7.7597987651824951e-01 5.9775346517562866e-01</leafValues></_>
        <_>
          <internalNodes>
            0 -1 45 1125192733 423428115 -1006596003 -2062745581
            549630361 -1316806656 -1710646854 1015022304</internalNodes>
          <leafValues>
            -7.7405709028244019e-01 6.7203491926193237e-01</leafValues></_></weakClassifiers></_>
    <!-- stage 14 -->
    <_>
      <maxWeakCount>2</maxWeakCount>
      <stageThreshold>-3.0798393487930298e-01</stageThreshold>
      <weakClassifiers>
        <_>
          <internalNodes>
            0 -1 51 -1064307761 -1073659901 134217987 1417830464
            1635975317 -1996468095 -527761139 -135837177</internalNodes>
          <leafValues>
            -7.7935945987701416e-01 5.3103446960449219e-01</leafValues></_>
        <_>
          <internalNodes>
            0 -1 73 -784141963 1128362308 17830415 1393808258
            -1065250355 8422016 -2004645885 1531966255</internalNodes>
          <leafValues>
            -8.3901840448379517e-01 5.8617419004440308e-01</leafValues></_></weakClassifiers></_>
    <!-- stage 15 -->
    <_>
      <maxWeakCount>2</maxWeakCount>
      <stageThreshold>-3.8049641251564026e-01</stageThreshold>
      <weakClassifiers>
        <_>
          <internalNodes>
            0 -1 8 -515664935 -682618624 -1878720509 -552500480 278674
            -2036332466 2030109091 -74069967</internalNodes>
          <leafValues>
            -8.1203007698059082e-01 4.6250000596046448e-01</leafValues></_>
        <_>
          <internalNodes>
            0 -1 95 -99765822 -1601677119 822382736 -721250036 25208203
            605062280 -762140667 -94420858</internalNodes>
          <leafValues>
            -8.4299641847610474e-01 5.4423111677169800e-01</leafValues></_></weakClassifiers></_>
    <!-- stage 16 -->
    <_>
      <maxWeakCount>3</maxWeakCount>
      <stageThreshold>-1.0043902397155762e+00</stageThreshold>
      <weakClassifiers>
        <_>
          <internalNodes>
            0 -1 28 1108412039 -1039071095 -1532343017 -533082111
            994100261 -393934847 -527561982 -84692790</internalNodes>
          <leafValues>
            -8.3211678266525269e-01 5.6578946113586426e-01</leafValues></_>
        <_>
          <internalNodes>
            0 -1 63 537598503 689015906 1076134017 -1454198224
            -2121760092 -1574567408 -1714913263 -101072815</internalNodes>
          <leafValues>
            -8.0526930093765259e-01 6.8331360816955566e-01</leafValues></_>
        <_>
          <internalNodes>
            0 -1 14 -1026389629 539045898 -2139975672 -1473723390
            807541005 1389402370 -2136596222 -38809213</internalNodes>
          <leafValues>
            -9.0477108955383301e-01 6.3299584388732910e-01</leafValues></_></weakClassifiers></_>
    <!-- stage 17 -->
    <_>
      <maxWeakCount>3</maxWeakCount>
      <stageThreshold>-1.1004241704940796e+00</stageThreshold>
      <weakClassifiers>
        <_>
          <internalNodes>
            0 -1 70 1687172575 -196083711 -2097081556 -455721972
            71406477 -1966833307 -394229600 -300774439</internalNodes>
          <leafValues>
            -7.9432624578475952e-01 5.6944441795349121e-01</leafValues></_>
        <_>
          <internalNodes>
            0 -1 43 -1040085121 1294041371 -2143483745 -1660255103
            -536856575 -1419637608 -1198519232 -75184082</internalNodes>
          <leafValues>
            -8.1704258918762207e-01 5.8768934011459351e-01</leafValues></_>
        <_>
          <internalNodes>
            0 -1 101 -886770706 21518 -1809833536 -724659136 1091094568
            1351092357 -1064826863 -490481470</internalNodes>
          <leafValues>
            -8.5282605886459351e-01 5.7178950309753418e-01</leafValues></_></weakClassifiers></_>
    <!-- stage 18 -->
    <_>
      <maxWeakCount>2</maxWeakCount>
      <stageThreshold>-1.3601391017436981e-01</stageThreshold>
      <weakClassifiers>
        <_>
          <internalNodes>
            0 -1 69 2132688381 -67108885 2147483647 2147401727 -4097
            -671121409 -32789 -858167540</internalNodes>
          <leafValues>
            -6.4954680204391479e-01 7.6842105388641357e-01</leafValues></_>
        <_>
          <internalNodes>
            0 -1 18 -375352573 -45039403 839012483 -678951730 1753227422
            -1139695604 1500315770 1577674827</internalNodes>
          <leafValues>
            -9.0443497896194458e-01 5.1443487405776978e-01</leafValues></_></weakClassifiers></_>
    <!-- stage 19 -->
    <_>
      <maxWeakCount>2</maxWeakCount>
      <stageThreshold>-4.6332913637161255e-01</stageThreshold>
      <weakClassifiers>
        <_>
          <internalNodes>
            0 -1 84 -905251874 -518782888 1081377 -117309367 407423416
            1510342666 -2050411840 -292572277</internalNodes>
          <leafValues>
            -8.4615385532379150e-01 2.9166665673255920e-01</leafValues></_>
        <_>
          <internalNodes>
            0 -1 32 -2142599126 -687374203 513 -651591675 1292667107
            -1879007190 563832905 -1355740725</internalNodes>
          <leafValues>
            -7.5499582290649414e-01 5.4076695442199707e-01</leafValues></_></weakClassifiers></_>
    <!-- stage 20 -->
    <_>
      <maxWeakCount>4</maxWeakCount>
      <stageThreshold>-6.8480330705642700e-01</stageThreshold>
      <weakClassifiers>
        <_>
          <internalNodes>
            0 -1 35 1532580119 -1593790139 25428171 1044430853
            1678332563 -1739505024 -2087589110 -829687667</internalNodes>
          <leafValues>
            -7.6086956262588501e-01 4.5333334803581238e-01</leafValues></_>
        <_>
          <internalNodes>
            0 -1 68 840241620 1233355013 -1266544305 -364113405
            -385179251 -2087190399 -1455259424 1354877659</internalNodes>
          <leafValues>
            -8.7774056196212769e-01 4.6827927231788635e-01</leafValues></_>
        <_>
          <internalNodes>
            0 -1 3 1092075791 1909039132 -1870622062 -712169466
            -1073183995 -1593794550 268544006 1361686631</internalNodes>
          <leafValues>
            -8.5705000162124634e-01 5.1829665899276733e-01</leafValues></_>
        <_>
          <internalNodes>
            0 -1 90 -1862234051 336658453 -2147396518 -1308622847
            -2147478736 268435585 -2122217330 -561117043</internalNodes>
          <leafValues>
            -7.4936586618423462e-01 7.0679169893264771e-01</leafValues></_></weakClassifiers></_>
    <!-- stage 21 -->
    <_>
      <maxWeakCount>4</maxWeakCount>
      <stageThreshold>-5.5557447671890259e-01</stageThreshold>
      <weakClassifiers>
        <_>
          <internalNodes>
            0 -1 16 -632242762 -721342447 -536788725 -1052125043
            1243712491 -780009334 252709514 -624872037</internalNodes>
          <leafValues>
            -7.0370370149612427e-01 5.1937985420227051e-01</leafValues></_>
        <_>
          <internalNodes>
            0 -1 5 -1043210118 -1324920421 -2147417893 -1659616894
            -930242141 1518477505 8394897 870844570</internalNodes>
          <leafValues>
            -8.3682060241699219e-01 4.8232224583625793e-01</leafValues></_>
        <_>
          <internalNodes>
            0 -1 25 -1739841063 -221183859 1208160091 -381747198
            671123585 -2101051352 -2147317309 1160872064</internalNodes>
          <leafValues>
            -8.2336777448654175e-01 5.2730315923690796e-01</leafValues></_>
        <_>
          <internalNodes>
            0 -1 42 -1282183937 -2143252224 67633485 290213890
            -2146271039 -801890304 -1316945912 -770226548</internalNodes>
          <leafValues>
            -7.3345792293548584e-01 5.8523410558700562e-01</leafValues></_></weakClassifiers></_>
    <!-- stage 22 -->
    <_>
      <maxWeakCount>4</maxWeakCount>
      <stageThreshold>-6.9162994623184204e-01</stageThreshold>
      <weakClassifiers>
        <_>
          <internalNodes>
            0 -1 80 -711503385 462545059 33620052 600909978 420200777
            546310145 -1600390981 134479519</internalNodes>
          <leafValues>
            -8.5714286565780640e-01 3.2978722453117371e-01</leafValues></_>
        <_>
          <internalNodes>
            0 -1 30 615820522 -125758699 553926681 -654045088 806457883
            302019491 941689579 737223339</internalNodes>
          <leafValues>
            -9.0496402978897095e-01 4.0991699695587158e-01</leafValues></_>
        <_>
          <internalNodes>
            0 -1 82 -1845276336 -796851446 16842754 -754974528
            -486539255 436338824 -2104915574 -5602738</internalNodes>
          <leafValues>
            -7.6807576417922974e-01 5.5804747343063354e-01</leafValues></_>
        <_>
          <internalNodes>
            0 -1 75 -206164203 -65986 -1 -1090965505 -16387 -8321
            2147479549 -165757059</internalNodes>
          <leafValues>
            -6.6325837373733521e-01 7.1407777070999146e-01</leafValues></_></weakClassifiers></_>
    <!-- stage 23 -->
    <_>
      <maxWeakCount>2</maxWeakCount>
      <stageThreshold>-3.6537623405456543e-01</stageThreshold>
      <weakClassifiers>
        <_>
          <internalNodes>
            0 -1 66 33782103 -619642797 276893713 -1785527920 814284800
            -1744633720 -1952409441 -32636285</internalNodes>
          <leafValues>
            -7.9622644186019897e-01 4.2857143282890320e-01</leafValues></_>
        <_>
          <internalNodes>
            0 -1 72 -621809153 1686470860 603999027 -532085759 16783505
            1228931084 -1610562880 -1550601696</internalNodes>
          <leafValues>
            -7.9394769668579102e-01 5.8883178234100342e-01</leafValues></_></weakClassifiers></_>
    <!-- stage 24 -->
    <_>
      <maxWeakCount>4</maxWeakCount>
      <stageThreshold>-4.2557430267333984e-01</stageThreshold>
      <weakClassifiers>
        <_>
          <internalNodes>
            0 -1 99 -1859659629 -1409252670 -267124480 1430769669
            -2080267898 -2143092736 -1597904220 -235953713</internalNodes>
          <leafValues>
            -7.3883163928985596e-01 5.4074072837829590e-01</leafValues></_>
        <_>
          <internalNodes>
            0 -1 34 -669821423 286725 4490240 -928904917 -1056865153
            -133549336 -1476345719 -87384606</internalNodes>
          <leafValues>
            -8.0908149480819702e-01 5.8426439762115479e-01</leafValues></_>
        <_>
          <internalNodes>
            0 -1 7 -535329021 -1018346492 1275138179 -1482096510
            34030211 -1006403379 1480361235 -780688601</internalNodes>
          <leafValues>
            -7.8872436285018921e-01 6.3141548633575439e-01</leafValues></_>
        <_>
          <internalNodes>
            0 -1 85 -1760259649 -1962896167 1375765637 -132382586
            302076319 -1606385461 540741733 -1683756512</internalNodes>
          <leafValues>
            -7.8681778907775879e-01 6.3149082660675049e-01</leafValues></_></weakClassifiers></_>
    <!-- stage 25 -->
    <_>
      <maxWeakCount>2</maxWeakCount>
      <stageThreshold>-4.9023327231407166e-01</stageThreshold>
      <weakClassifiers>
        <_>
          <internalNodes>
            0 -1 67 -1652184963 558891569 67196249 -700345453 184682663
            243859682 -1979535200 -205215614</internalNodes>
          <leafValues>
            -7.8906250000000000e-01 3.5294118523597717e-01</leafValues></_>
        <_>
          <internalNodes>
            0 -1 23 -188258795 -1257659965 -1610050298 1615315143
            -1027567806 1762164736 29437952 -745942786</internalNodes>
          <leafValues>
            -8.4317445755004883e-01 4.3987557291984558e-01</leafValues></_></weakClassifiers></_>
    <!-- stage 26 -->
    <_>
      <maxWeakCount>3</maxWeakCount>
      <stageThreshold>-9.8622328042984009e-01</stageThreshold>
      <weakClassifiers>
        <_>
          <internalNodes>
            0 -1 98 -199236697 -1056747387 1342292152 -528383992
            25233793 542114074 -260013568 -108024818</internalNodes>
          <leafValues>
            -7.6951670646667480e-01 4.1401273012161255e-01</leafValues></_>
        <_>
          <internalNodes>
            0 -1 59 -1843672877 -1256548331 155262162 -140271423
            -2004737906 -1701735931 -1971222313 -295415312</internalNodes>
          <leafValues>
            -7.3927456140518188e-01 6.0721528530120850e-01</leafValues></_>
        <_>
          <internalNodes>
            0 -1 94 1434770207 -2147454960 33109 -645902271 -391634447
            -2130632672 537448881 -1148456382</internalNodes>
          <leafValues>
            -6.6096150875091553e-01 7.0724213123321533e-01</leafValues></_></weakClassifiers></_>
    <!-- stage 27 -->
    <_>
      <maxWeakCount>3</maxWeakCount>
      <stageThreshold>-1.0482323169708252e+00</stageThreshold>
      <weakClassifiers>
        <_>
          <internalNodes>
            0 -1 6 -563083149 -1713471291 -1610268543 -1660092153
            1813054179 1317535916 1224869128 -33177590</internalNodes>
          <leafValues>
            -7.8988325595855713e-01 3.6094674468040466e-01</leafValues></_>
        <_>
          <internalNodes>
            0 -1 41 940537122 -1993080745 33620306 -796520994 1744976001
            -1694924640 134823970 -1211809517</internalNodes>
          <leafValues>
            -8.8376253843307495e-01 4.0533319115638733e-01</leafValues></_>
        <_>
          <internalNodes>
            0 -1 91 -1027081799 318865939 34607136 622051593 1152073867
            185016328 352489627 -1450389813</internalNodes>
          <leafValues>
            -6.6368222236633301e-01 6.9584435224533081e-01</leafValues></_></weakClassifiers></_>
    <!-- stage 28 -->
    <_>
      <maxWeakCount>3</maxWeakCount>
      <stageThreshold>-5.6662138551473618e-02</stageThreshold>
      <weakClassifiers>
        <_>
          <internalNodes>
            0 -1 37 -2008968833 289526017 -1073504933 469928023
            -2136259211 -1197471232 -1047512316 -650180463</internalNodes>
          <leafValues>
            -8.5470086336135864e-01 3.0208334326744080e-01</leafValues></_>
        <_>
          <internalNodes>
            0 -1 86 -1314941647 1812021619 19071121 -736272116
            -1954447221 -930936574 -654145397 215140608</internalNodes>
          <leafValues>
            -8.7135279178619385e-01 3.9235186576843262e-01</leafValues></_>
        <_>
          <internalNodes>
            0 -1 79 -1069382709 856719473 332276 -1970126760 142639761
            957415432 -1472167282 -31817176</internalNodes>
          <leafValues>
            -7.5109732151031494e-01 5.6363242864608765e-01</leafValues></_></weakClassifiers></_>
    <!-- stage 29 -->
    <_>
      <maxWeakCount>3</maxWeakCount>
      <stageThreshold>-5.4292607307434082e-01</stageThreshold>
      <weakClassifiers>
        <_>
          <internalNodes>
            0 -1 100 -4181 -957419540 -285212750 -142671953 -1006665729
            -1879834431 1040056293 -16842762</internalNodes>
          <leafValues>
            -5.8510637283325195e-01 7.1666663885116577e-01</leafValues></_>
        <_>
          <internalNodes>
            0 -1 27 -1035730045 -795820029 16777289 140263445
            -1878751225 294912 -939226616 -209493886</internalNodes>
          <leafValues>
            -6.5239113569259644e-01 7.2734433412551880e-01</leafValues></_>
        <_>
          <internalNodes>
            0 -1 29 268603569 2013266121 1073758215 -603910075
            -1977579344 1241514130 -939488638 -896589552</internalNodes>
          <leafValues>
            -6.0720157623291016e-01 8.0096286535263062e-01</leafValues></_></weakClassifiers></_>
    <!-- stage 30 -->
    <_>
      <maxWeakCount>4</maxWeakCount>
      <stageThreshold>-1.1012691259384155e-01</stageThreshold>
      <weakClassifiers>
        <_>
          <internalNodes>
            0 -1 96 277987664 21004416 285311488 -2129387519 82337 32776
            -1071644392 1086900618</internalNodes>
          <leafValues>
            -8.4615385532379150e-01 6.0714286565780640e-01</leafValues></_>
        <_>
          <internalNodes>
            0 -1 64 17271186 1476462865 8519689 553713793 -1073708924
            -1610579808 133139 -2013209311</internalNodes>
          <leafValues>
            -7.3961317539215088e-01 7.1464329957962036e-01</leafValues></_>
        <_>
          <internalNodes>
            0 -1 0 -233694305 286261248 1073744005 1210843399
            -1073741753 -2013265784 -668952568 704725064</internalNodes>
          <leafValues>
            -7.3134565353393555e-01 7.3048180341720581e-01</leafValues></_>
        <_>
          <internalNodes>
            0 -1 40 -2134900720 -802127845 4384 1851401 142606344
            -1071087488 25231360 1217003526</internalNodes>
          <leafValues>
            -8.4038192033767700e-01 7.5368899106979370e-01</leafValues></_></weakClassifiers></_>
    <!-- stage 31 -->
    <_>
      <maxWeakCount>3</maxWeakCount>
      <stageThreshold>3.6767396330833435e-01</stageThreshold>
      <weakClassifiers>
        <_>
          <internalNodes>
            0 -1 53 168821318 1077993492 32768 -2138570624 -2139092987
            671092880 -2112781182 157878152</internalNodes>
          <leafValues>
            -9.6825397014617920e-01 6.3005781173706055e-01</leafValues></_>
        <_>
          <internalNodes>
            0 -1 15 -2076164042 273170450 2099265 4104 231424 556843008
            143278091 42139747</internalNodes>
          <leafValues>
            -8.7055778503417969e-01 6.7084723711013794e-01</leafValues></_>
        <_>
          <internalNodes>
            0 -1 93 -2130607805 -2130439904 -2013179904 1635844104
            -1878786030 -2113896424 32792 343986308</internalNodes>
          <leafValues>
            -8.8230788707733154e-01 6.6508066654205322e-01</leafValues></_></weakClassifiers></_>
    <!-- stage 32 -->
    <_>
      <maxWeakCount>2</maxWeakCount>
      <stageThreshold>7.5375869870185852e-02</stageThreshold>
      <weakClassifiers>
        <_>
          <internalNodes>
            0 -1 97 805011454 -1124139029 32753 -1828716544 1073774601
            -268943360 1040037556 1346496341</internalNodes>
          <leafValues>
            -6.8750000000000000e-01 8.0821919441223145e-01</leafValues></_>
        <_>
          <internalNodes>
            0 -1 71 -2062974967 1342308352 2 8454148 592003 -2013233152
            -2147448191 134305796</internalNodes>
          <leafValues>
            -7.3284327983856201e-01 8.3071482181549072e-01</leafValues></_></weakClassifiers></_>
    <!-- stage 33 -->
    <_>
      <maxWeakCount>2</maxWeakCount>
      <stageThreshold>-7.5519531965255737e-02</stageThreshold>
      <weakClassifiers>
        <_>
          <internalNodes>
            0 -1 33 -2134081150 1098942977 64 -1736310654 360585
            1073741825 -2147483391 671088657</internalNodes>
          <leafValues>
            -8.6885243654251099e-01 6.8292683362960815e-01</leafValues></_>
        <_>
          <internalNodes>
            0 -1 65 1078263811 663960 98321 427819008 8390688 1073807488
            -2147450751 -1702838270</internalNodes>
          <leafValues>
            -7.1737098693847656e-01 7.9333293437957764e-01</leafValues></_></weakClassifiers></_>
    <!-- stage 34 -->
    <_>
      <maxWeakCount>2</maxWeakCount>
      <stageThreshold>-1.2865394353866577e-01</stageThreshold>
      <weakClassifiers>
        <_>
          <internalNodes>
            0 -1 4 268697764 274268165 -2147482620 1073807368 4202521
            144705545 131074 268435648</internalNodes>
          <leafValues>
            -9.5652174949645996e-01 7.3006135225296021e-01</leafValues></_>
        <_>
          <internalNodes>
            0 -1 20 339870857 25165826 -2147483644 16777232 8388609
            4194816 134252674 1745169032</internalNodes>
          <leafValues>
            -7.6180469989776611e-01 8.2786780595779419e-01</leafValues></_></weakClassifiers></_>
    <!-- stage 35 -->
    <_>
      <maxWeakCount>3</maxWeakCount>
      <stageThreshold>-5.5669838190078735e-01</stageThreshold>
      <weakClassifiers>
        <_>
          <internalNodes>
            0 -1 88 1877934048 -1909528328 -4 -33026 1073707007
            243138557 2144436226 -805142539</internalNodes>
          <leafValues>
            -6.5517240762710571e-01 8.5915493965148926e-01</leafValues></_>
        <_>
          <internalNodes>
            0 -1 87 209456757 -1078001793 -536870913 1056931839
            -1073807372 -1 -1073807497 2146729780</internalNodes>
          <leafValues>
            -7.1317386627197266e-01 8.8440042734146118e-01</leafValues></_>
        <_>
          <internalNodes>
            0 -1 90 -786791424 478150656 557056 8 8945808 0 -2013200376
            -1609885118</internalNodes>
          <leafValues>
            -7.8592640161514282e-01 8.4682434797286987e-01</leafValues></_></weakClassifiers></_>
    <!-- stage 36 -->
    <_>
      <maxWeakCount>1</maxWeakCount>
      <stageThreshold>7.2121214866638184e-01</stageThreshold>
      <weakClassifiers>
        <_>
          <internalNodes>
            0 -1 1 -1855016654 -1056440320 65536 -1006632959 1342439425
            1207959552 2208 272957440</internalNodes>
          <leafValues>
            -1. 7.2121214866638184e-01</leafValues></_></weakClassifiers></_>
    <!-- stage 37 -->
    <_>
      <maxWeakCount>2</maxWeakCount>
      <stageThreshold>2.4494354426860809e-01</stageThreshold>
      <weakClassifiers>
        <_>
          <internalNodes>
            0 -1 62 1744781092 1073741807 -2 -1073807377 -2130706186
            2113961992 -12583120 -1511751833</internalNodes>
          <leafValues>
            -6.9230771064758301e-01 9.5683455467224121e-01</leafValues></_>
        <_>
          <internalNodes>
            0 -1 47 1107443712 8388869 0 1074135041 4 -2080374784
            -2147450752 235251712</internalNodes>
          <leafValues>
            -7.1189099550247192e-01 9.5148515701293945e-01</leafValues></_></weakClassifiers></_>
    <!-- stage 38 -->
    <_>
      <maxWeakCount>2</maxWeakCount>
      <stageThreshold>6.9773040711879730e-02</stageThreshold>
      <weakClassifiers>
        <_>
          <internalNodes>
            0 -1 44 804982758 1073741943 8193 8388609 805306403
            -1084227552 -1145053313 2170740</internalNodes>
          <leafValues>
            -7.2093021869659424e-01 8.8888889551162720e-01</leafValues></_>
        <_>
          <internalNodes>
            0 -1 77 276824611 -1879048190 1 263168 -2147450876 36
            1081354 612379200</internalNodes>
          <leafValues>
            -8.1911581754684448e-01 8.7375605106353760e-01</leafValues></_></weakClassifiers></_>
    <!-- stage 39 -->
    <_>
      <maxWeakCount>1</maxWeakCount>
      <stageThreshold>8.0891722440719604e-01</stageThreshold>
      <weakClassifiers>
        <_>
          <internalNodes>
            0 -1 48 1048576 -1874853756 134481154 167772169 16809986
            8256 -2147450736 150999058</internalNodes>
          <leafValues>
            -1. 8.0891722440719604e-01</leafValues></_></weakClassifiers></_></stages>
  <features>
    <_>
      <rect>
        0 0 3 4</rect></_>
    <_>
      <rect>
        0 0 5 6</rect></_>
    <_>
      <rect>
        0 0 5 8</rect></_>
    <_>
      <rect>
        0 1 2 4</rect></_>
    <_>
      <rect>
        0 1 7 3</rect></_>
    <_>
      <rect>
        0 1 8 4</rect></_>
    <_>
      <rect>
        0 2 3 3</rect></_>
    <_>
      <rect>
        0 3 2 3</rect></_>
    <_>
      <rect>
        0 3 3 2</rect></_>
    <_>
      <rect>
        0 3 3 4</rect></_>
    <_>
      <rect>
        0 3 3 5</rect></_>
    <_>
      <rect>
        0 4 5 6</rect></_>
    <_>
      <rect>
        0 5 2 3</rect></_>
    <_>
      <rect>
        0 6 5 4</rect></_>
    <_>
      <rect>
        0 8 1 1</rect></_>
    <_>
      <rect>
        0 10 6 4</rect></_>
    <_>
      <rect>
        1 1 6 3</rect></_>
    <_>
      <rect>
        1 3 3 5</rect></_>
    <_>
      <rect>
        1 3 4 6</rect></_>
    <_>
      <rect>
        1 3 5 7</rect></_>
    <_>
      <rect>
        1 4 3 5</rect></_>
    <_>
      <rect>
        1 9 3 3</rect></_>
    <_>
      <rect>
        1 11 1 2</rect></_>
    <_>
      <rect>
        1 12 1 1</rect></_>
    <_>
      <rect>
        1 12 3 4</rect></_>
    <_>
      <rect>
        1 12 7 3</rect></_>
    <_>
      <rect>
        2 0 5 4</rect></_>
    <_>
      <rect>
        2 1 2 4</rect></_>
    <_>
      <rect>
        2 8 1 1</rect></_>
    <_>
      <rect>
        3 1 2 1</rect></_>
    <_>
      <rect>
        3 1 5 3</rect></_>
    <_>
      <rect>
        3 1 6 4</rect></_>
    <_>
      <rect>
        3 3 2 2</rect></_>
    <_>
      <rect>
        3 7 5 5</rect></_>
    <_>
      <rect>
        3 8 3 5</rect></_>
    <_>
      <rect>
        3 9 2 3</rect></_>
    <_>
      <rect>
        3 12 3 3</rect></_>
    <_>
      <rect>
        3 15 3 3</rect></_>
    <_>
      <rect>
        4 0 6 6</rect></_>
    <_>
      <rect>
        4 7 3 3</rect></_>
    <_>
      <rect>
        4 7 3 4</rect></_>
    <_>
      <rect>
        4 12 3 2</rect></_>
    <_>
      <rect>
        4 15 2 3</rect></_>
    <_>
      <rect>
        4 18 3 2</rect></_>
    <_>
      <rect>
        5 0 4 2</rect></_>
    <_>
      <rect>
        5 0 6 2</rect></_>
    <_>
      <rect>
        5 1 5 3</rect></_>
    <_>
      <rect>
        5 2 6 6</rect></_>
    <_>
      <rect>
        5 4 5 5</rect></_>
    <_>
      <rect>
        5 7 4 4</rect></_>
    <_>
      <rect>
        5 9 6 5</rect></_>
    <_>
      <rect>
        5 15 2 3</rect></_>
    <_>
      <rect>
        6 0 4 2</rect></_>
    <_>
      <rect>
        6 0 4 5</rect></_>
    <_>
      <rect>
        6 0 6 4</rect></_>
    <_>
      <rect>
        6 7 4 4</rect></_>
    <_>
      <rect>
        7 0 4 2</rect></_>
    <_>
      <rect>
        7 1 5 4</rect></_>
    <_>
      <rect>
        7 3 2 1</rect></_>
    <_>
      <rect>
        7 11 3 3</rect></_>
    <_>
      <rect>
        8 0 4 1</rect></_>
    <_>
      <rect>
        8 2 3 1</rect></_>
    <_>
      <rect>
        8 6 4 2</rect></_>
    <_>
      <rect>
        8 12 1 1</rect></_>
    <_>
      <rect>
        8 12 2 2</rect></_>
    <_>
      <rect>
        8 13 1 1</rect></_>
    <_>
      <rect>
        8 21 2 1</rect></_>
    <_>
      <rect>
        9 5 5 2</rect></_>
    <_>
      <rect>
        9 6 5 4</rect></_>
    <_>
      <rect>
        10 0 3 1</rect></_>
    <_>
      <rect>
        10 8 1 1</rect></_>
    <_>
      <rect>
        10 12 2 3</rect></_>
    <_>
      <rect>
        11 10 4 3</rect></_>
    <_>
      <rect>
        12 6 4 4</rect></_>
    <_>
      <rect>
        12 11 3 3</rect></_>
    <_>
      <rect>
        14 3 2 2</rect></_>
    <_>
      <rect>
        14 5 3 3</rect></_>
    <_>
      <rect>
        14 6 2 3</rect></_>
    <_>
      <rect>
        14 9 3 4</rect></_>
    <_>
      <rect>
        15 0 3 1</rect></_>
    <_>
      <rect>
        15 2 3 6</rect></_>
    <_>
      <rect>
        15 4 3 4</rect></_>
    <_>
      <rect>
        15 10 1 2</rect></_>
    <_>
      <rect>
        15 10 3 4</rect></_>
    <_>
      <rect>
        15 12 2 3</rect></_>
    <_>
      <rect>
        15 15 2 3</rect></_>
    <_>
      <rect>
        16 2 2 4</rect></_>
    <_>
      <rect>
        17 10 1 3</rect></_>
    <_>
      <rect>
        17 11 2 3</rect></_>
    <_>
      <rect>
        18 1 2 3</rect></_>
    <_>
      <rect>
        18 3 2 1</rect></_>
    <_>
      <rect>
        18 3 2 5</rect></_>
    <_>
      <rect>
        18 5 2 4</rect></_>
    <_>
      <rect>
        18 8 2 2</rect></_>
    <_>
      <rect>
        18 11 1 1</rect></_>
    <_>
      <rect>
        18 11 2 2</rect></_>
    <_>
      <rect>
        18 12 2 2</rect></_>
    <_>
      <rect>
        19 14 1 2</rect></_>
    <_>
      <rect>
        20 8 1 1</rect></_>
    <_>
      <rect>
        20 10 1 2</rect></_>
    <_>
      <rect>
        20 11 1 1</rect></_>
    <_>
      <rect>
        21 11 1 1</rect></_></features></cascade>
</opencv_storage>
